{"_wandb":{"runtime":723},"_timestamp":1.771424500892894e+09,"avg_prob_deck_H":0.0005978772533126175,"policy_loss":17.39980697631836,"gradients/policy_net.0.bias":{"bins":[-7.401985168457031,-7.284924507141113,-7.167863845825195,-7.050803184509277,-6.933742523193359,-6.816681861877441,-6.699621200561523,-6.5825605392456055,-6.4654998779296875,-6.3484392166137695,-6.231378555297852,-6.114317417144775,-5.997256755828857,-5.8801960945129395,-5.7631354331970215,-5.6460747718811035,-5.5290141105651855,-5.411953449249268,-5.29489278793335,-5.177832126617432,-5.060771465301514,-4.9437103271484375,-4.8266496658325195,-4.709589004516602,-4.592528343200684,-4.475467681884766,-4.358407020568848,-4.24134635925293,-4.124285697937012,-4.007225036621094,-3.890164375305176,-3.773103713989258,-3.656043291091919,-3.538982629776001,-3.421921968460083,-3.304861307144165,-3.187800645828247,-3.07073974609375,-2.953679084777832,-2.836618423461914,-2.719557762145996,-2.602497100830078,-2.48543643951416,-2.368375778198242,-2.251314878463745,-2.134254217147827,-2.017193555831909,-1.9001327753067017,-1.7830721139907837,-1.6660114526748657,-1.5489507913589478,-1.4318900108337402,-1.3148293495178223,-1.1977686882019043,-1.0807079076766968,-0.9636473059654236,-0.8465866446495056,-0.7295259833335876,-0.6124652624130249,-0.49540454149246216,-0.3783438801765442,-0.26128318905830383,-0.14422249794006348,-0.027161799371242523,0.08989889174699783],"_type":"histogram","values":[1,0,0,0,0,0,0,0,1,0,0,0,0,0,0,0,0,0,0,0,0,0,0,0,0,0,0,0,0,0,0,0,0,0,0,0,0,0,0,0,0,0,0,0,0,0,0,0,0,0,0,0,0,0,0,0,0,0,0,0,0,0,1,1]},"_runtime":723,"avg_prob_deck_D":0.7996687293052673,"avg_prob_deck_E":0.00025825106422416866,"mean_log_prob_episode":-0.8074966073036194,"avg_prob_deck_F":0.041006870567798615,"_step":1002,"avg_prob_deck_G":0.002631118753924966,"episode":999,"gradients/policy_net.2.bias":{"bins":[-8.259466171264648,-7.978074073791504,-7.696681976318359,-7.415289878845215,-7.13389778137207,-6.852505683898926,-6.571113586425781,-6.289721488952637,-6.008329391479492,-5.726937294006348,-5.445545196533203,-5.164153099060059,-4.882761478424072,-4.601369380950928,-4.319977283477783,-4.038585186004639,-3.757193088531494,-3.4758009910583496,-3.194408893585205,-2.9130167961120605,-2.631624698638916,-2.3502326011657715,-2.068840503692627,-1.7874484062194824,-1.506056785583496,-1.2246646881103516,-0.943272590637207,-0.6618804931640625,-0.38048839569091797,-0.09909629821777344,0.1822957992553711,0.4636878967285156,0.7450799942016602,1.0264720916748047,1.3078641891479492,1.5892562866210938,1.8706483840942383,2.152040481567383,2.4334325790405273,2.714824676513672,2.9962167739868164,3.2776083946228027,3.5590004920959473,3.840392589569092,4.121784687042236,4.403176784515381,4.684568881988525,4.96596097946167,5.2473530769348145,5.528745174407959,5.8101372718811035,6.091529369354248,6.372921466827393,6.654313087463379,6.935705184936523,7.217097282409668,7.4984893798828125,7.779881477355957,8.061273574829102,8.342665672302246,8.62405776977539,8.905449867248535,9.18684196472168,9.468234062194824,9.749626159667969],"_type":"histogram","values":[1,0,0,0,0,0,0,0,0,0,0,0,0,0,0,0,0,0,0,0,0,0,0,0,0,2,0,0,1,2,0,0,0,1,0,0,0,0,0,0,0,0,0,0,0,0,0,0,0,0,0,0,0,0,0,0,0,0,0,0,0,0,0,1]},"gradients/policy_net.0.weight":{"bins":[-7.7801313400268555,-7.637880802154541,-7.495630264282227,-7.353379726409912,-7.211129188537598,-7.068878173828125,-6.9266276359558105,-6.784377098083496,-6.642126560211182,-6.499876022338867,-6.357625484466553,-6.215374946594238,-6.073123931884766,-5.930873870849609,-5.788622856140137,-5.646372318267822,-5.504121780395508,-5.361871242523193,-5.219620704650879,-5.077369689941406,-4.93511962890625,-4.792868614196777,-4.650618076324463,-4.508367538452148,-4.366117000579834,-4.2238664627075195,-4.081615924835205,-3.9393651485443115,-3.797114610671997,-3.6548638343811035,-3.512613296508789,-3.3703627586364746,-3.2281124591827393,-3.085861921310425,-2.9436113834381104,-2.801360845565796,-2.6591100692749023,-2.516859531402588,-2.3746087551116943,-2.23235821723938,-2.0901076793670654,-1.947857141494751,-1.8056066036224365,-1.663355827331543,-1.5211052894592285,-1.378854751586914,-1.2366039752960205,-1.094353437423706,-0.9521028995513916,-0.8098523616790771,-0.6676017045974731,-0.5253510475158691,-0.3831005096435547,-0.24084997177124023,-0.09859931468963623,0.04365134239196777,0.18590188026428223,0.32815247774124146,0.4704030752182007,0.6126536726951599,0.7549042701721191,0.8971548676490784,1.0394054651260376,1.1816561222076416,1.323906660079956],"_type":"histogram","values":[1,0,0,0,0,0,0,0,1,0,0,0,0,0,0,0,0,0,0,1,0,0,0,1,0,0,0,0,0,0,0,0,0,0,0,0,0,0,0,0,0,0,0,0,0,1,0,1,0,1,0,0,0,2,20,4,0,0,0,0,0,0,2,1]},"avg_prob_deck_B":0.07205069065093994,"avg_prob_deck_C":0.08355508744716644,"gradients/policy_net.2.weight":{"_type":"histogram","values":[1,0,0,0,0,0,1,0,0,0,0,0,0,0,0,0,0,0,1,0,0,0,0,0,0,1,3,2,2,15,0,1,2,0,0,0,0,0,0,0,0,0,1,0,0,0,0,0,0,0,0,0,0,0,0,1,0,0,0,0,0,0,0,1],"bins":[-16.17130470275879,-15.620359420776367,-15.069414138793945,-14.518467903137207,-13.967522621154785,-13.416577339172363,-12.865631103515625,-12.314685821533203,-11.763740539550781,-11.21279525756836,-10.661849975585938,-10.1109037399292,-9.559958457946777,-9.009013175964355,-8.458066940307617,-7.907121658325195,-7.356176376342773,-6.805231094360352,-6.25428581237793,-5.703339576721191,-5.1523942947387695,-4.601449012756348,-4.050502777099609,-3.4995574951171875,-2.9486122131347656,-2.3976669311523438,-1.8467216491699219,-1.2957754135131836,-0.7448301315307617,-0.19388484954833984,0.35706138610839844,0.9080066680908203,1.4589519500732422,2.009897232055664,2.560842514038086,3.111788749694824,3.662734031677246,4.213679313659668,4.764625549316406,5.315570831298828,5.86651611328125,6.417461395263672,6.968406677246094,7.519352912902832,8.070298194885254,8.621243476867676,9.172189712524414,9.723134994506836,10.274080276489258,10.82502555847168,11.375970840454102,11.92691707611084,12.477862358093262,13.028807640075684,13.579753875732422,14.130699157714844,14.681644439697266,15.232589721679688,15.78353500366211,16.33448028564453,16.885425567626953,17.436372756958008,17.98731803894043,18.53826332092285,19.089208602905273]},"avg_prob_deck_A":0.00023139675613492727,"average_reward_100_ep":2180.8,"cumulative_reward":1910}