{"avg_prob_deck_F":0.058400463312864304,"_runtime":585,"gradients/policy_net.0.weight":{"values":[1,2,0,0,0,0,2,0,0,0,2,1,1,0,0,0,2,2,0,1,1,0,0,1,1,1,5,2,214,11,15,4,3,3,2,3,1,0,1,0,0,1,2,0,0,0,0,0,0,0,0,0,0,0,1,0,0,0,0,0,0,0,1,1],"bins":[-1.1612967252731323,-1.1206912994384766,-1.0800858736038208,-1.039480447769165,-0.998875081539154,-0.9582697153091431,-0.9176642894744873,-0.8770588636398315,-0.8364534378051758,-0.7958480715751648,-0.755242645740509,-0.714637279510498,-0.6740318536758423,-0.6334264278411865,-0.5928210020065308,-0.5522156357765198,-0.511610209941864,-0.47100478410720825,-0.43039941787719727,-0.3897939920425415,-0.34918856620788574,-0.30858319997787476,-0.267977774143219,-0.22737234830856323,-0.18676698207855225,-0.14616155624389648,-0.10555613040924072,-0.06495070457458496,-0.0243452787399292,0.01626002788543701,0.05686545372009277,0.09747087955474854,0.1380763053894043,0.17868173122406006,0.21928715705871582,0.2598925828933716,0.3004978895187378,0.34110331535339355,0.3817087411880493,0.4223141670227051,0.46291959285736084,0.5035249590873718,0.5441303849220276,0.5847358107566833,0.6253411769866943,0.6659466028213501,0.7065520286560059,0.7471573948860168,0.7877628207206726,0.8283682465553284,0.8689736127853394,0.9095790386199951,0.9501844644546509,0.9907898902893066,1.0313951969146729,1.0720007419586182,1.1126060485839844,1.1532114744186401,1.193816900253296,1.2344223260879517,1.2750277519226074,1.3156330585479736,1.3562384843826294,1.3968439102172852,1.437449336051941],"_type":"histogram"},"gradients/policy_net.2.bias":{"values":[1,0,0,0,0,0,0,0,0,0,0,0,0,0,0,0,0,0,0,0,0,0,0,0,0,0,0,0,0,0,0,0,0,0,0,1,0,3,1,0,0,0,0,0,0,0,0,0,1,0,0,0,0,0,0,0,0,0,0,0,0,0,0,1],"bins":[-3.211594820022583,-3.1257870197296143,-3.0399792194366455,-2.9541714191436768,-2.868363618850708,-2.7825558185577393,-2.6967480182647705,-2.6109402179718018,-2.525132417678833,-2.4393246173858643,-2.3535168170928955,-2.2677090167999268,-2.181901454925537,-2.0960936546325684,-2.0102858543395996,-1.9244779348373413,-1.8386701345443726,-1.7528623342514038,-1.667054533958435,-1.5812467336654663,-1.4954389333724976,-1.4096311330795288,-1.32382333278656,-1.2380155324935913,-1.152207851409912,-1.0664000511169434,-0.9805922508239746,-0.8947844505310059,-0.8089766502380371,-0.7231688499450684,-0.6373610496520996,-0.5515532493591309,-0.4657454490661621,-0.37993764877319336,-0.2941298484802246,-0.20832204818725586,-0.12251424789428711,-0.03670644760131836,0.04910135269165039,0.13490915298461914,0.2207169532775879,0.3065246343612671,0.39233243465423584,0.4781402349472046,0.5639480352401733,0.6497558355331421,0.7355636358261108,0.8213714361190796,0.9071792364120483,0.9929870367050171,1.0787948369979858,1.1646026372909546,1.2504104375839233,1.3362181186676025,1.4220259189605713,1.50783371925354,1.5936415195465088,1.6794493198394775,1.7652571201324463,1.851064920425415,1.9368727207183838,2.0226805210113525,2.1084883213043213,2.19429612159729,2.280103921890259],"_type":"histogram"},"gradients/policy_net.0.bias":{"values":[1,0,1,0,0,0,0,0,1,0,0,0,0,0,1,1,0,1,0,0,0,1,0,1,0,2,10,0,1,1,3,1,0,0,1,0,1,0,0,1,0,0,0,0,1,0,1,0,0,0,0,0,0,0,0,0,0,0,0,0,0,0,0,1],"bins":[-0.6040745973587036,-0.5809723138809204,-0.5578700304031372,-0.534767746925354,-0.511665403842926,-0.4885631203651428,-0.4654608368873596,-0.4423585534095764,-0.4192562401294708,-0.39615392684936523,-0.37305164337158203,-0.34994935989379883,-0.3268470764160156,-0.30374476313591003,-0.28064247965812683,-0.25754016637802124,-0.23443788290023804,-0.21133559942245483,-0.18823328614234924,-0.16513100266456604,-0.14202868938446045,-0.11892640590667725,-0.09582412242889404,-0.07272183895111084,-0.04961955547332764,-0.026517212390899658,-0.003414928913116455,0.019687354564666748,0.04278963804244995,0.06589192152023315,0.08899426460266113,0.11209654808044434,0.13519883155822754,0.15830111503601074,0.18140339851379395,0.20450574159622192,0.22760802507400513,0.25071030855178833,0.27381259202957153,0.29691487550735474,0.3200172185897827,0.3431195020675659,0.3662217855453491,0.3893240690231323,0.4124263525009155,0.4355286657810211,0.4586309492588043,0.4817332625389099,0.5048355460166931,0.5279378294944763,0.5510401725769043,0.5741424560546875,0.5972447395324707,0.6203470230102539,0.6434493064880371,0.6665515899658203,0.6896538734436035,0.7127562165260315,0.7358585000038147,0.7589607834815979,0.7820630669593811,0.8051654100418091,0.8282676935195923,0.8513699769973755,0.8744722604751587],"_type":"histogram"},"policy_loss":1.3057866096496582,"avg_prob_deck_H":0.00011448685108916834,"average_reward_100_ep":1866.15,"avg_prob_deck_D":0.014382066205143929,"cumulative_reward":2175,"gradients/policy_net.2.weight":{"_type":"histogram","values":[1,0,0,1,0,1,0,0,1,0,1,0,0,0,0,1,0,1,0,0,0,0,0,1,0,1,1,1,0,0,0,1,0,2,0,1,3,5,179,21,7,5,2,1,1,1,2,4,0,1,1,1,0,2,0,0,0,1,0,1,1,0,0,2],"bins":[-3.724184036254883,-3.6278257369995117,-3.5314676761627197,-3.4351093769073486,-3.3387513160705566,-3.2423930168151855,-3.1460347175598145,-3.0496764183044434,-2.9533183574676514,-2.8569602966308594,-2.7606019973754883,-2.664243698120117,-2.567885398864746,-2.471527338027954,-2.375169038772583,-2.278810977935791,-2.18245267868042,-2.086094379425049,-1.9897363185882568,-1.8933780193328857,-1.7970198392868042,-1.7006616592407227,-1.6043033599853516,-1.5079452991485596,-1.4115869998931885,-1.3152287006378174,-1.2188706398010254,-1.1225123405456543,-1.0261540412902832,-0.9297959804534912,-0.8334376811981201,-0.7370796203613281,-0.6407210826873779,-0.5443627834320068,-0.44800472259521484,-0.35164642333984375,-0.25528836250305176,-0.15893006324768066,-0.06257176399230957,0.03378629684448242,0.13014459609985352,0.2265028953552246,0.3228609561920166,0.4192192554473877,0.5155774354934692,0.6119356155395508,0.7082939147949219,0.8046520948410034,0.901010274887085,0.9973684549331665,1.093726634979248,1.1900849342346191,1.2864431142807007,1.3828012943267822,1.4791595935821533,1.5755177736282349,1.6718759536743164,1.768234133720398,1.8645923137664795,1.9609506130218506,2.0573086738586426,2.1536669731140137,2.2500252723693848,2.3463833332061768,2.442741632461548]},"mean_log_prob_episode":-0.5932117700576782,"_step":2568,"_wandb":{"runtime":585},"avg_prob_deck_B":0.09804027527570724,"avg_prob_deck_G":0.0003011582011822611,"_timestamp":1.7618256903030863e+09,"episode":2560,"avg_prob_deck_A":3.670076694106683e-05,"avg_prob_deck_C":0.8285215497016907,"avg_prob_deck_E":0.00020331796258687973}